{
  "layerOut": {
    "Weights": [
      0.5152936178352214,
      0.6799801112512545,
      0.6248188723311578,
      0.5027765524149423,
      -0.4611215557265943,
      0.45297567382480564,
      0.683428755035385,
      0.9785678525081536,
      -0.06384459099236028,
      -0.268125225287551
    ],
    "Bias": -0.6394985499217158
  },
  "layerMid": [
    {
      "Weights": [
        0.27478016641185676,
        0.2768110501801375,
        -0.6841481268357803,
        0.9428231059812409,
        0.8608850536689798,
        0.9200553439426107,
        0.24026165862167348,
        0.35401054904852414,
        0.8396596383204411,
        -0.1143472602960075,
        -0.5372183488192521,
        -0.3310627823650908,
        0.1848683479734412,
        -0.04785803513471254,
        -0.9319044276784254,
        -0.8268017197813278,
        0.5744921397879379,
        0.8451515649035026,
        0.17500740371613355,
        0.22182899418740054,
        -0.6083747239474975,
        0.2234243426572604,
        0.2186486054847494,
        -0.689575991678431,
        0.19747858811206265,
        0.8592870967384201,
        -0.12014278924812472,
        0.25319471810248584,
        -0.8880499606687312,
        0.7103897709074243,
        0.41682919085023595,
        0.052158952371193834,
        -0.5205699290308898,
        0.47839415859704526,
        0.23419439640748863,
        -0.21852396269354524,
        0.1678000178687682,
        0.8801213343646466,
        -0.835493760880746,
        0.18747745593116116,
        0.11273894078921631,
        -0.5491499965131594,
        -0.7536373871128914,
        0.5944599999928566,
        0.2749314100619773,
        0.6884321086513245,
        -0.4741183624691371,
        -0.9850858249579276,
        0.5247971482494311,
        0.40670138571437775,
        -0.5316261352355707,
        0.16187480711725333,
        0.49777024688905547,
        -0.9994775590925609,
        -0.5156710769707131,
        0.6354862872862739,
        0.8003415204433377,
        -0.7240479961634747,
        0.9519782682086286,
        -0.21103210548836016,
        -0.22918814390435038,
        0.6508200142362792,
        -0.044409678612277514,
        0.4795418545616139,
        -0.3229842092156925,
        0.5025418540970334,
        -0.9285472520429469,
        0.822205226042636,
        -0.8499722335043896,
        -0.5762995498575605,
        -0.430524903974995,
        -0.5881629247029154,
        -0.6925140290931606,
        -0.12529142589378717,
        0.042626165425718954,
        -0.48479090609111697,
        0.07873385580380154,
        0.7648083125667804,
        0.30572873880298457,
        -0.21422910025301833,
        0.39348254496913504,
        0.33183474939347724,
        0.9868892949635524,
        0.8666793650174056,
        -0.41360868549549157,
        -0.9226211120924148,
        -0.06869977893135304,
        0.8810396909900955,
        -0.4359428851068621,
        0.20194287548720014,
        -0.6403523129127444,
        -0.02494102036737378,
        0.24778201851706005,
        0.47343396780320024,
        0.4955292835737142,
        -0.10935705763630066,
        -0.5772356664682894,
        0.7452506670689423,
        0.13936675987523417,
        -0.889241423147099,
        -0.30086552788587084,
        -0.5789187982349873,
        -0.7511394966105093,
        0.33606038065592747,
        -0.8289658989711484,
        -0.36969933135626665,
        0.932733788126247,
        0.7445500475853273,
        -0.18477826628394944,
        0.7998267722967591,
        -0.9937366959102943,
        -0.2154703230627757,
        0.5184691638112855,
        -0.9262198676376765,
        0.6698733851885896,
        -0.9437155486110059,
        0.022479888044277585,
        0.6843350451193326,
        -0.8578410068185038,
        -0.039545470304879315,
        -0.07597323645990017,
        -0.508743856762177,
        -0.5245536048321995,
        0.04310971966649624,
        0.8314163966854096,
        0.6648527856045754,
        -0.48477861914729725,
        -0.438648072024838,
        0.018941283659770658,
        -0.5479066463804212,
        -0.47931584885098566,
        0.2929622174739839,
        0.47573284379748326,
        -0.8304206378244461,
        0.3328060700137663,
        -0.839223926930029,
        -0.035496485579982084,
        -0.16229058365518945,
        -0.7106887790701081,
        0.1801863332685225,
        -0.07656241351466198,
        -0.6793189160325439,
        0.4336540487868241,
        -0.20898623588002319,
        0.07654001935151866,
        -0.14019819976253167,
        0.09166509173157777,
        -0.26019996152505376,
        0.1259145573868412,
        0.5882531172482399,
        -0.09016129403043338,
        0.5856886912641823,
        -0.1340343251681675,
        0.10571119971663001,
        -0.4895337406919642,
        0.3181170245943101,
        -0.24838305531918858,
        0.9163367105795468,
        -0.1960406041105337,
        -0.22557709405648285,
        -0.5024418261646392,
        0.8370874310176315,
        -0.7500244105388277,
        -0.37454636002900576,
        -0.5566595473849854,
        0.42332312022395446,
        -0.43841546380272445,
        0.40238891426004386,
        0.896479808972751,
        -0.4250349112728995,
        0.43782312920358546,
        0.2842620307871919,
        -0.9553474686741329,
        0.9865687123233462,
        0.8828295254761318,
        0.6297615790267945,
        -0.9084781331404923,
        -0.9503545353587297,
        0.6374850100456633,
        0.818297865609205,
        0.33297812378774827,
        0.6583874740884561,
        0.4483361060276223,
        0.9433638090495116,
        -0.44389816453977116,
        0.9896831281230336,
        0.10354851415955979,
        0.6343120286254673,
        0.5355595068438435,
        0.5312131004874368,
        -0.0008774381058903602,
        -0.5354357875201466,
        -0.7442760536230473,
        0.04049770451287671,
        0.48720703414049815,
        -0.4513260486764844,
        -0.5782568045124723,
        0.7556868242524011,
        0.6250203446302625,
        0.8254346052841106
      ],
      "Bias": 0.37519243223796117
    },
    {
      "Weights": [
        -0.5999157566603696,
        -0.5493780113072518,
        -0.6539625018048363,
        -0.8011553772659299,
        -0.617890291683473,
        0.36531631110953877,
        -0.26410228199047514,
        0.2842658889406382,
        -0.24802567176282952,
        0.5107678439103722,
        -0.29609277654317767,
        0.7110477481341821,
        -0.4009666631660357,
        -0.11189843937822586,
        -0.2006245813416747,
        0.5601518171013256,
        0.8818173660438544,
        -0.7566119319311528,
        0.9042451716458315,
        -0.10527412166370331,
        0.6374631352660487,
        0.10245236497539278,
        -0.05076445042568534,
        0.29890681896478277,
        0.5538521035709514,
        -0.06952703202120447,
        0.6885890674042232,
        -0.3098293003630721,
        -0.3708410289377827,
        0.032263115814684884,
        -0.28000882873409894,
        -0.3959567053136821,
        0.7279058349239684,
        0.12154724963576125,
        -0.48298579782700557,
        -0.4688892371980643,
        0.803991606285041,
        0.2943085042418647,
        -0.5879005482475814,
        -0.5858427424184947,
        0.8434839000944045,
        -0.09013481324178574,
        -0.3372166459602217,
        0.39476930176813885,
        -0.5600614617081308,
        0.4350927886940501,
        -0.4124044736758373,
        0.7726823086518402,
        0.8998326471874183,
        -0.8486136081103899,
        -0.12004125401072518,
        0.5821479786080135,
        -0.3038331042469956,
        -0.6893514732933108,
        0.2014717580061176,
        0.7522091847642989,
        0.3447601544285963,
        -0.30990780265790885,
        0.9324257979341326,
        -0.8822215801377069,
        -0.7132327719475764,
        -0.36921610508658587,
        0.12873210301228988,
        -0.32590213066815665,
        0.29293282782227226,
        0.010357978960759073,
        -0.2639677348921572,
        0.68211470404973,
        0.2650023844093512,
        0.23746112498601724,
        0.45600338122552597,
        -0.6728083613805913,
        0.724962436451662,
        0.0015547231150432328,
        -0.35738141983858807,
        -0.9732922239132005,
        0.782123380913532,
        0.7464156510802744,
        0.2814521495238549,
        0.007287631384457649,
        -0.017621631910605506,
        0.5520397640245167,
        0.8039173440364977,
        0.39281985995102064,
        0.7804638761671916,
        0.10962164049763667,
        0.0872458480214604,
        0.43523880086011335,
        0.6323411005349302,
        0.47794909049750456,
        0.723333765548521,
        -0.16407205240037903,
        0.02722363002231032,
        -0.46199103054007895,
        0.5284666781476361,
        -0.33964274795201355,
        -0.4594861146730451,
        0.24941013891076524,
        -0.026467709467295042,
        0.19609035513786655,
        -0.5483426298990575,
        -0.05710538693389877,
        -0.23045524010418883,
        -0.17596297868582111,
        -0.4918485120015571,
        -0.2828187871444764,
        -0.341516754399829,
        0.8269429042302101,
        -0.9199130351944927,
        0.18632716933394988,
        -0.951126868914139,
        0.37888449349325093,
        -0.45685504599735693,
        0.24111612632208645,
        0.6682244937270374,
        0.5202235909713231,
        0.04647746393336227,
        0.38487018439995935,
        0.14300561797790334,
        -0.24531506098776068,
        0.049400771164111124,
        0.4861695090635434,
        0.759437209129074,
        0.44161641021271913,
        0.5715958183159378,
        -0.17003156234574568,
        -0.05418031943632229,
        -0.9203272833898388,
        -0.6815232331704246,
        0.8747427017924447,
        -0.9871851381797951,
        0.7459060894354819,
        0.48750165995204164,
        -0.8850833703203115,
        0.7880747530968732,
        0.13423812081892716,
        -0.48925926330677627,
        -0.04010772307025268,
        -0.7853669368883662,
        -0.03919674379504079,
        0.274372780649466,
        0.5624595987294498,
        -0.25583348097562353,
        0.7610774366801565,
        0.44801131791139914,
        0.11259857308671739,
        0.6839538976604751,
        0.3488378611791654,
        -0.2139868053824613,
        -0.5831653045349163,
        -0.6632403133340053,
        0.8468809582760048,
        0.5952464668389257,
        0.6738599061162964,
        -0.3176746761380532,
        -0.5435538805821036,
        -0.578605801069145,
        0.4613526095417193,
        0.7282500281543611,
        0.49799136010651934,
        0.7175603994106388,
        -0.9758009825125323,
        0.0881385916630415,
        -0.5348174205829149,
        -0.313233655698398,
        -0.5849662687036092,
        0.39007152272938495,
        0.8159469405312061,
        -0.033344151891584906,
        0.7419991137109556,
        -0.911491324193438,
        0.3001494457933329,
        0.028375765288886745,
        -0.6088665311603205,
        0.7305104926804027,
        0.1800482201314486,
        0.6995990665376881,
        0.5449876255499662,
        -0.643377498520151,
        -0.27232533469460996,
        -0.6644537226338627,
        0.4483618996822476,
        0.5489076187223609,
        -0.23673669676514164,
        0.2778763668867168,
        0.6337531688319442,
        -0.9756165500201689,
        -0.7678728722025769,
        0.20809455823406897,
        -0.005706894755083014,
        0.0746487258646038,
        -0.7731781899624289,
        0.8048808893003871,
        -0.007049707705882313,
        0.7976696052336045,
        0.4756410916843221,
        -0.6888438858227646,
        -0.18911335773622484,
        -0.47034018882423867,
        -0.15070906748385293
      ],
      "Bias": 0.9736796289582303
    },
    {
      "Weights": [
        0.9857978788231851,
        0.5458430548889575,
        0.4978822726696046,
        0.918684588414292,
        -0.5058481979296726,
        -0.8662139622696128,
        0.052823865439292295,
        0.6537027460284586,
        0.5180166176413934,
        0.9396734419764761,
        0.6185605142250139,
        -0.29509743598082416,
        0.7036478118947664,
        -0.998809199270159,
        -0.6970601921298779,
        -0.6428159793591728,
        -0.7587812970525837,
        -0.2775062778798657,
        0.18229410228084797,
        -0.003918181650268249,
        -0.9160303290657117,
        -0.581633613844309,
        -0.7020634660508704,
        0.07004422271814881,
        -0.6233341780615247,
        0.07415492782827515,
        0.1843616294171413,
        0.07259110513438594,
        -0.5944098074915735,
        0.8596874242910704,
        0.3810752431823812,
        0.23923938845593717,
        -0.6815874340874883,
        0.39045791464410184,
        -0.04199405204539952,
        -0.9422340087687895,
        0.5054432932696906,
        -0.45784852856913516,
        -0.1845690274245705,
        -0.8537422134521011,
        0.9027930257752153,
        0.8419886953890983,
        0.21075997510181543,
        -0.08011662219328541,
        -0.4991710732327046,
        -0.4818993302058334,
        -0.25932823527951276,
        0.5546473879201956,
        -0.9352203905103255,
        0.8655028250100183,
        0.5944229952969833,
        -0.7065682857703451,
        -0.6059461733479522,
        0.3774481379043235,
        0.018074600483574788,
        0.09236620385727923,
        -0.06378142092605898,
        -0.5608480070065636,
        -0.7028965690913308,
        0.7714454978646976,
        -0.2205982936295635,
        -0.7360284249464097,
        0.21164179885700052,
        -0.35685019021664655,
        -0.7487832801870451,
        -0.5324219168673203,
        -0.1758272190739093,
        -0.5267962388627543,
        0.48717138364365553,
        0.5208487525850161,
        0.8379417597585364,
        0.44454508175212126,
        -0.06133538419435958,
        -0.5887112578030226,
        0.5614263171121283,
        -0.5194536853950908,
        -0.2575859835704343,
        0.9886765900031635,
        -0.5708784274479427,
        -0.3295124366052796,
        -0.18494704174953525,
        0.7014491927423065,
        0.7160988185783361,
        -0.900917316281069,
        0.7707335851894188,
        -0.49805063017834195,
        -0.22881516466313567,
        0.3498169090986014,
        -0.1911898735099521,
        -0.9558579403737645,
        0.9298557258774724,
        0.9055122649401408,
        -0.8227816253643941,
        -0.8790526666633922,
        0.19457161193128325,
        0.8861684850527047,
        0.6726834822344556,
        0.5652798541779755,
        -0.011420091605316873,
        -0.313365755428917,
        -0.044133109115542246,
        -0.6270360895287665,
        -0.7694977484417476,
        -0.10735138690044022,
        -0.5270643323196025,
        0.5808699140977323,
        -0.35446155463540485,
        0.007328151422947737,
        0.26684726592299124,
        0.7034251915249252,
        -0.19641870661171046,
        -0.7071353094258365,
        0.2207362881528474,
        -0.4585035136744282,
        -0.7163858090736036,
        -0.7744569392047859,
        0.8560606992436308,
        0.8460766787987382,
        -0.6279547248090429,
        0.21200244876275964,
        -0.27071200421918484,
        0.7814982897042917,
        0.46795837182645683,
        -0.891381855670045,
        0.13337488866832836,
        0.6562084739427612,
        0.41824870289101,
        0.3124559760533696,
        0.8427958409059981,
        -0.250148147640999,
        0.9786003310442652,
        -0.6811466630849073,
        0.5316033163570228,
        0.21767495740340115,
        -0.7985714047626055,
        -0.7727334973404616,
        0.6545754151130003,
        -0.7802079616141023,
        0.08697232937519495,
        -0.008163042283637623,
        -0.4852211234941417,
        0.6052967270338929,
        0.008675743501319833,
        -0.014727826825435497,
        -0.8717255364374644,
        0.534699400154883,
        -0.9515036928751537,
        -0.025879875221970328,
        -0.5280805001669371,
        0.8475323757228732,
        -0.647357804399738,
        0.006913379831518185,
        0.9462785377723446,
        -0.3959430874847967,
        0.4144540806731942,
        0.558742779922446,
        0.23304507260417173,
        0.20804616482483151,
        -0.7803991094717794,
        -0.3565082298771417,
        0.2252229899852849,
        0.7307853306376266,
        0.8043131523924556,
        0.05095880403857578,
        0.7226979196953967,
        -0.6551667482309523,
        0.7842486915395817,
        -0.4888550040893711,
        -0.5992405838071198,
        0.6146144424413793,
        0.7051608816160642,
        0.6714814454935705,
        -0.3923491276924096,
        -0.6835751841948285,
        -0.9734041227947173,
        -0.43141602457614237,
        -0.05955053025301282,
        -0.19940254086923603,
        0.1486789419428478,
        0.673083805750416,
        -0.9255203248615894,
        -0.7513171937207462,
        -0.33202558585809216,
        0.010592120299162788,
        0.5102347318514651,
        -0.9160123424288344,
        -0.8742063972333541,
        -0.6769188501272357,
        0.5185907054283894,
        -0.35894203087857257,
        0.11601862870945157,
        0.5671576629316359,
        -0.19934706115844336,
        -0.2395476159265184,
        -0.6519572460138375,
        0.2195658021866398,
        0.04245736466714933,
        -0.35468978782621696,
        -0.5104082977807839,
        0.6865776148835685
      ],
      "Bias": 0.6608097234367478
    },
    {
      "Weights": [
        -0.20839634253387895,
        0.7907622551685964,
        -0.24542081157544315,
        0.08784128896079824,
        0.3896967960915452,
        0.06488580327701077,
        0.45008999398314686,
        -0.5464361573255353,
        -0.17922266940127296,
        -0.8653115929457554,
        -0.7989350851733673,
        -0.37161667030200995,
        0.40211923704989094,
        0.6298192587283689,
        -0.7761409121390958,
        -0.8830514644536916,
        -0.7025330789398415,
        -0.36390413747423744,
        0.41693343350073997,
        -0.04078852516378906,
        0.9913268352530216,
        -0.8180887484305026,
        0.021888361992138616,
        -0.1829245389736739,
        -0.9345148178312012,
        0.9057496665192071,
        0.6750947249026458,
        -0.26818179274757614,
        -0.34116880234621805,
        0.5875371248927812,
        -0.6221514291416054,
        -0.0292448824868754,
        -0.8638509431812635,
        -0.20147163742953422,
        0.8820117702673211,
        0.7389252966727959,
        -0.10553619773449896,
        -0.1315343186735698,
        0.050141336938694714,
        0.74813188541487,
        -0.0902008684202763,
        0.9686300101712086,
        0.4646556849125869,
        -0.784146778779952,
        0.5038724096288958,
        -0.8186395038327567,
        0.4264108330185572,
        0.2940590665305447,
        -0.18008096438805654,
        -0.9549453898688265,
        0.2535563028362531,
        -0.6495395475917902,
        -0.026840952068321267,
        -0.044390995563261426,
        0.23163716799928769,
        -0.5602488259960299,
        0.13152341572099968,
        -0.9750941091127298,
        -0.28354394917329007,
        -0.15641915447965715,
        -0.20536537431174529,
        0.3506007297011293,
        -0.8211999217538002,
        -0.4061512161879731,
        0.7637621483897672,
        0.44848961946988375,
        -0.5687685869279555,
        0.7906979687388493,
        0.48790243304808256,
        -0.9677983347272052,
        -0.07925631952679979,
        0.7958848550008664,
        -0.8641743546812044,
        0.969543505031397,
        -0.9326426313053904,
        -0.6694783362886236,
        -0.19836222702283324,
        0.008494611836600052,
        -0.904549969134989,
        -0.8310881600626583,
        -0.40324952655480495,
        0.7044817545432562,
        -0.07571074697200153,
        0.4906734637661574,
        0.09713035686390148,
        0.33302555012331814,
        -0.7101708971663254,
        -0.7761366143417672,
        -0.17238998254807525,
        -0.20012738997228052,
        -0.8864056766505051,
        -0.12287849066017265,
        -0.35197321417257377,
        0.6203092616428911,
        -0.34241577896361486,
        -0.9548967976492251,
        0.6244478404555354,
        -0.4524111043685246,
        -0.32010908700914453,
        0.9632340474980852,
        -0.17164547395986274,
        0.6049380913600129,
        -0.47955799694238466,
        0.3499979653088381,
        0.017547038026640704,
        0.8115391164091146,
        0.2068664513440912,
        0.393826371887138,
        0.6764773942985423,
        0.1724521400745982,
        -0.25183523929832363,
        0.8908078341332262,
        -0.2819852405087342,
        0.6418154676858576,
        0.21702327919152098,
        0.7044130547439389,
        -0.980701909421419,
        -0.4081191978435099,
        -0.5894548500909231,
        0.6109318393091896,
        0.08725949753395223,
        0.5498378701293507,
        0.7365819884784794,
        0.25388624392477555,
        0.31808059019214774,
        0.8687042811421464,
        0.4935209956513753,
        -0.8645240764762246,
        -0.23236502424064942,
        -0.8959952214019882,
        -0.18767518823862805,
        -0.6672025741601404,
        0.798342990030207,
        -0.28393507132683093,
        0.7323259500060149,
        0.9361120272573373,
        0.7269495636104382,
        -0.3628425546917664,
        -0.843021149060143,
        -0.3660201657927834,
        -0.5483251019363267,
        -0.6414418310701733,
        -0.8727470193115718,
        -0.37526858497935633,
        0.8621022022909786,
        -0.2680301738355666,
        -0.004919634101047676,
        0.27156007872488597,
        0.8189540357810843,
        -0.15152160975936813,
        0.520786664283635,
        0.4102876018696666,
        0.9409675156373059,
        0.28970230999054647,
        -0.37406247545209736,
        0.6847713749831135,
        -0.3633007399787487,
        0.607660569538288,
        0.2816510946449,
        -0.3320660663070887,
        0.5604270711708592,
        0.9604787702057824,
        -0.26618487823306114,
        -0.32006482911634204,
        -0.3252234515290333,
        0.9580347643542395,
        0.4445472013924554,
        -0.4883778749763009,
        -0.8839760651505296,
        -0.011397025598069987,
        0.5501644445919587,
        -0.910976841168873,
        -0.14765330014279132,
        -0.052071000801666156,
        0.6683253807618379,
        -0.8230893561132483,
        -0.4824118009937355,
        0.5674386264210785,
        -0.47163202915927316,
        -0.36291026955025774,
        0.35836913278249893,
        0.7530706561661955,
        -0.5589336965660472,
        -0.8888374438166313,
        -0.4462855880594043,
        -0.8001160395859722,
        0.7319502969540186,
        -0.8310931301552743,
        -0.5878374652961404,
        0.8357598069217718,
        0.4755937893505169,
        -0.15368552261177293,
        -0.7351524973753415,
        0.31271139019172844,
        -0.5329190662794335,
        -0.42681764319019166,
        0.3890988350452811,
        -0.30329382154436213,
        -0.09454426296849183,
        0.8611299273768853
      ],
      "Bias": -0.7354609636064741
    },
    {
      "Weights": [
        -0.49446132338859794,
        0.6036206756745275,
        -0.8557120578007968,
        -0.09320425140501598,
        0.6177592007430315,
        -0.3479494160698573,
        -0.426695999145298,
        0.8534200378470704,
        -0.3980982532975753,
        -0.5477113595152662,
        0.7277346757258873,
        0.7990447654464965,
        -0.6427289447289366,
        -0.48055641258830806,
        0.6891793966313868,
        0.8393222116967178,
        -0.8662672630111526,
        -0.06340213225337954,
        0.7734955434363551,
        -0.9679286830656114,
        0.7293497417667276,
        -0.40396973633089084,
        -0.0888414485226503,
        -0.1589955838913587,
        -0.7584799522187479,
        -0.48309355435141277,
        -0.4920216705032393,
        -0.4680481084310454,
        -0.23810173160421721,
        0.15007385850701604,
        -0.6679191624729186,
        0.9153936896222128,
        -0.6400556983001562,
        -0.16342373179285952,
        0.7709499753044768,
        -0.6732587856182856,
        -0.9272609133069838,
        -0.0942040588246571,
        0.028159198083623327,
        -0.06812982100518394,
        0.41860604872642027,
        -0.0005306141420710064,
        -0.9164191027540108,
        0.02180812988909575,
        -0.840091284100424,
        -0.06353893603650296,
        0.2313673294636358,
        -0.6647812284848739,
        0.2405359974226331,
        -0.416228269363102,
        -0.7393206679254212,
        0.8471619837902507,
        -0.851484546533328,
        -0.18063919396848205,
        0.8905508662884376,
        0.09238271045947855,
        -0.21984544667583017,
        -0.563557870526665,
        0.524552907878882,
        0.27079989019268824,
        0.9858181235500236,
        0.8061108260515426,
        0.49958346086576877,
        -0.08156864129615027,
        0.0472196121259052,
        -0.0211733511004234,
        -0.6517020948010703,
        0.7165552339989927,
        0.9382430399960553,
        0.4999496811799753,
        -0.5773901200085887,
        0.3429244274864778,
        -0.9433939581245279,
        0.028223380154613675,
        -0.7894174303499171,
        0.41503292758020716,
        0.11465923254320742,
        -0.9335594736079459,
        -0.9072914258554411,
        -0.5197283812387358,
        -0.3970992884877411,
        0.8811040581345191,
        0.48251706435048747,
        0.6356709610824476,
        -0.6155023948607143,
        0.1818590227528858,
        -0.972223568102598,
        0.5097683954973289,
        -0.9220692027726498,
        0.7457175030233993,
        -0.4958207184777996,
        -0.6055497243036756,
        0.6236679357879518,
        0.6598603420670017,
        -0.25477787245934047,
        0.6530034086259471,
        0.09270881219110905,
        -0.5562413640208719,
        0.20356140305028192,
        0.3921754593004103,
        0.19934508298073683,
        -0.16305273619645355,
        0.3513808613910996,
        -0.8331545273490089,
        -0.412193573080321,
        0.7414229756365669,
        -0.3484434698368677,
        -0.4370376820130252,
        0.40261529026394394,
        0.5856468941819537,
        0.7086245825388655,
        0.5750747896450801,
        -0.010113903614769049,
        0.15495717950515853,
        0.5135288159984481,
        0.5947377147132988,
        -0.952982636368461,
        0.4224766224893297,
        0.09463532674559438,
        -0.18571734249813232,
        0.8663964995453057,
        0.42992479453113286,
        -0.6034380791858437,
        0.10514539142044899,
        -0.9774401809042103,
        -0.5582214864997179,
        -0.008925622871638228,
        0.8813675842166893,
        -0.2968807659630627,
        -0.14512567145847544,
        0.6622757313903878,
        -0.07674643786949598,
        0.1131113925178302,
        0.22534343149357383,
        -0.8083850599335954,
        -0.6602451267524913,
        0.25126380834180906,
        0.5634062491495724,
        -0.7806938338310823,
        -0.07506391044222338,
        0.9986431697413065,
        -0.0079060577974579,
        0.1353767435848341,
        -0.24331188879417442,
        0.4101984259682616,
        0.5320031037608468,
        -0.1884761122810139,
        -0.9084008996084671,
        -0.7503509091114342,
        -0.8789068150766826,
        0.7794039285254861,
        0.5177497011165071,
        0.38276366806273376,
        -0.8786835499916601,
        0.26104893969399323,
        0.33755442204216246,
        -0.30762317629717295,
        0.0068854562396145624,
        -0.027845573304378646,
        -0.3196904949238708,
        0.2490042163827797,
        -0.7387747804305612,
        0.8418443515038561,
        -0.6248871305536534,
        -0.634412814761935,
        0.6445082791303589,
        0.7457228126994266,
        -0.48971421823214,
        -0.6887858152428626,
        -0.037377373072133846,
        -0.9300375642797596,
        0.7791809880292913,
        0.7950103741485524,
        0.3469372050709685,
        -0.3910493211358227,
        -0.3498525888978289,
        -0.9540771966844723,
        -0.7973274147512059,
        -0.06262305597550621,
        -0.4261254079814135,
        0.37607646083623036,
        -0.28256023437543554,
        0.10478726218152534,
        -0.3815175005613838,
        0.0535610368574031,
        0.09017736736810522,
        -0.23406910208611797,
        -0.5323236420212027,
        0.2971744574652979,
        -0.7743660290115658,
        -0.5650714001110921,
        0.8430589671066127,
        -0.7046459442319788,
        -0.4558690246257323,
        -0.18876928565691664,
        0.4807080539623467,
        0.12296147949253466,
        -0.13834542656373594,
        0.2911906008849796,
        0.6111170152080974
      ],
      "Bias": 0.07879108993658601
    },
    {
      "Weights": [
        -0.08510857913821313,
        0.3419846229371333,
        0.18208835835600667,
        0.7720226189884376,
        -0.2981371925036458,
        0.2781690048949723,
        0.43399429992694216,
        0.6456341520247302,
        0.1313092473785611,
        -0.7092351113297557,
        0.6868036996465088,
        -0.8946223559078681,
        0.8765747865712203,
        -0.9330735773350958,
        -0.7567080707543424,
        -0.4329952336898457,
        -0.5643823619408002,
        -0.0037288333712066635,
        0.5744998865950082,
        -0.8238619435780885,
        0.0896970931880483,
        -0.7567196135962306,
        -0.4074182958494855,
        -0.06295066601296229,
        0.3736719809248348,
        0.04430391070359363,
        0.9827079089322428,
        0.7067434827393999,
        0.9843263914767633,
        -0.6441939775268247,
        0.8522955631100526,
        -0.36698182369475485,
        -0.633931037285791,
        -0.40649745394199066,
        -0.9389895859339609,
        0.9140159369269039,
        -0.7235526697332489,
        -0.16499488396344264,
        0.46962807297829956,
        -0.8262100739193192,
        -0.5059537323283794,
        -0.9076840839771765,
        -0.0955458685934436,
        -0.001395513594892317,
        -0.1492779750264508,
        0.5103140761509362,
        0.38767061898856703,
        0.4374715768129791,
        -0.931732446811626,
        0.04646864063489331,
        0.3777614951702295,
        -0.08698347929730543,
        0.8178502656558702,
        -0.693430871556029,
        0.705585551480352,
        -0.15285387382974946,
        -0.4060622129339244,
        0.10939843485834211,
        0.18698147032830037,
        0.5045287385611388,
        -0.22802161400428722,
        0.9147457823439533,
        0.14341790829689627,
        -0.9637069995106438,
        -0.9078869034378352,
        -0.2689474912258434,
        0.784824155666809,
        -0.9677513551713655,
        -0.05207710173140734,
        0.37303382016418785,
        -0.314697291697024,
        -0.26225720246922835,
        0.9927100602550574,
        0.12446942825954377,
        0.9822297019577395,
        -0.6486591696528947,
        -0.443576183451328,
        0.06333932612712023,
        -0.8652696820331697,
        -0.6660336475480203,
        0.3443157631319904,
        -0.5590347695121025,
        -0.8431437517220555,
        -0.5304676711587831,
        0.17232401352152826,
        -0.7791072198460016,
        0.40527821520972296,
        0.938404895415649,
        0.9044663221782663,
        0.4385472375682784,
        -0.4553196212267806,
        0.3818882260329899,
        -0.46184013174322447,
        -0.3598276767046553,
        -0.15898572264517785,
        -0.2534833189512179,
        -0.581261577583142,
        -0.362146221014805,
        0.7025499414280441,
        -0.5818796233783405,
        -0.5654182493697615,
        -0.2846462873150083,
        0.3206607459217645,
        -0.3979720658067041,
        0.3158111925843017,
        0.20954017867837393,
        -0.9985477731372708,
        0.21938982748127422,
        -0.4543252456265864,
        -0.5133341447269248,
        0.6736976434482185,
        0.9391983304177636,
        -0.3145466853505885,
        -0.2971054226171458,
        -0.1128378093657213,
        0.3146728204632592,
        0.3806450040524234,
        0.4779575502890687,
        0.5149815203900323,
        -0.43923816768965973,
        0.09659669666626391,
        -0.5701515905643639,
        -0.36727539273446397,
        0.059164432553010515,
        -0.12219655075251279,
        -0.39914090426419047,
        0.35850923811489444,
        0.20100085478943353,
        0.9135294419924982,
        -0.9073493965839038,
        -0.057198389230108226,
        -0.4167441337539419,
        0.828613964456022,
        -0.4440373215894564,
        0.4781837919100338,
        0.2372846956189425,
        -0.42117707151707207,
        -0.8034983936970223,
        -0.4502734995636757,
        0.9438217366585311,
        0.5928184551090556,
        0.7197417195658729,
        0.5095822093666065,
        -0.6652386147971597,
        -0.42861508161866957,
        -0.3664798928114933,
        0.21925831315140276,
        -0.5996948992452285,
        0.2429336961057429,
        0.601139926546937,
        -0.8587951187305949,
        0.4543917435392939,
        0.0748202113453218,
        0.7286364338573923,
        0.8351592599507496,
        -0.35741565908603423,
        -0.6692238570883698,
        0.7859159352680889,
        0.4422305125705963,
        0.06851117541977492,
        0.3109758698315219,
        -0.046236332151769255,
        -0.276219827949579,
        0.03794204581918259,
        -0.15110907422676334,
        0.39064567270462836,
        -0.45046472006688487,
        -0.29603778733547725,
        -0.1845932681134944,
        -0.2114081122518241,
        -0.012189905410136204,
        0.9033204552110392,
        0.6001044991736171,
        -0.5484382937550742,
        0.05654174300716375,
        0.8383269181445618,
        0.1954572992272694,
        -0.9421522085582615,
        -0.3218475926315849,
        0.13154629341083246,
        -0.6569352399890689,
        -0.6137556466872822,
        -0.14269647551828646,
        0.24815859539549634,
        0.06436577152364165,
        0.4036399857844122,
        -0.8184967698596441,
        -0.3946701649875384,
        0.557252095483004,
        0.5064642800604953,
        0.22042892951224036,
        0.13736380737463194,
        0.3849872049736951,
        -0.9290172363474398,
        0.5125805495236078,
        -0.32769694564791496,
        -0.17678724206265362,
        0.20223089757376367,
        0.33911713111452424,
        0.10093338640332927
      ],
      "Bias": 0.7455765987040868
    },
    {
      "Weights": [
        0.5001845407153076,
        -0.8481325663903962,
        -0.39016882298592737,
        -0.2260788840454221,
        -0.9830529110403051,
        0.9823771952350011,
        0.0943340616720656,
        -0.6608949026973927,
        -0.04689695475888245,
        0.2841919694459287,
        -0.6249739164590764,
        -0.5477929875842289,
        0.812871272801269,
        0.27006515063907854,
        -0.042246973967541734,
        -0.9614182443337483,
        -0.06587765918926225,
        -0.5586568535526449,
        -0.6845418117475629,
        -0.6334023735651259,
        -0.5814398940165242,
        -0.5845002089487513,
        -0.06531686538275294,
        -0.6580248571010553,
        -0.8873567147386385,
        0.4429601912634904,
        -0.6405572159656991,
        0.5094522847291532,
        0.07237063840841329,
        -0.12209590678517157,
        -0.644595770021225,
        0.9808224236352037,
        -0.07994358277677927,
        0.4293814763966375,
        -0.24703855969525879,
        0.3363423027511896,
        0.7806573359490954,
        -0.4557488247301076,
        -0.6077024479648189,
        -0.9498605185700668,
        0.8570864291933673,
        -0.06157188295332949,
        -0.17067767503201414,
        0.5431422595634223,
        -0.7432636633493078,
        -0.42241931096461416,
        -0.8851969039852419,
        -0.7382239754644243,
        0.7065449948776898,
        0.11873744019173693,
        -0.9997145749628564,
        -0.32986447263322494,
        0.537358801236508,
        0.14984187231269885,
        0.8720388022748693,
        0.4040214892656129,
        -0.936663584700216,
        0.7215399023506206,
        0.6993135259780852,
        0.736925631469268,
        0.35715738670943376,
        -0.5401655092238218,
        -0.4404849820666773,
        0.13893490128836405,
        0.3387656010625224,
        -0.8381685559557874,
        0.6595081322085465,
        0.7168102633045617,
        -0.37458327817396864,
        -0.26031977964513653,
        -0.957651571719858,
        -0.13051094132456453,
        -0.5972061460901305,
        0.37418628820992805,
        -0.8971679611707931,
        0.567907473989304,
        -0.16231154718485008,
        0.24771250992636928,
        0.5013516686215518,
        0.9761558157361065,
        0.9329470203557277,
        0.29925950050684436,
        0.7822537305115198,
        -0.7257105159705264,
        -0.5266747399835847,
        0.7714081772081605,
        0.16758118227365615,
        -0.9423217699236882,
        0.5327479949231013,
        -0.6707032832478885,
        0.8643289894286827,
        -0.5999985579198557,
        0.9173071106399731,
        0.04315299643148873,
        -0.2938239724999906,
        0.8141708433268651,
        -0.978301233247739,
        -0.33538682765351513,
        -0.35970787003137195,
        0.7518466850901748,
        0.6087742319322986,
        -0.09660508189534933,
        -0.4678135238990918,
        -0.40374777619666957,
        0.19442348875434612,
        -0.8015593625819779,
        -0.4185475828763455,
        0.26401390223574195,
        0.2939943682933919,
        -0.35345576755432795,
        -0.32350547567760923,
        0.5676162979678188,
        -0.829476338029837,
        0.2647680560974217,
        0.6526188921082328,
        -0.11058767946166614,
        0.568736784464815,
        0.15212954383679378,
        -0.39530610181991177,
        0.141884631556918,
        -0.912434356233045,
        0.6383494427913834,
        0.7883066450793061,
        -0.47605163998811584,
        -0.09489023681017772,
        0.8564069985733218,
        0.4421675399588314,
        -0.8989676299049739,
        0.9120183772582233,
        -0.02189728399951152,
        -0.3194975340203243,
        0.640004662084914,
        0.5396133617550634,
        -0.9812494390580349,
        0.9557427200582682,
        -0.6309095736707842,
        0.8904560865923719,
        0.4471174374473257,
        0.5171501056728238,
        0.9683606720859719,
        -0.32512753812096906,
        -0.9898087345275786,
        -0.157718440757167,
        0.37172263173798825,
        -0.5556150416812693,
        0.4830275971893705,
        -0.8905173173538323,
        -0.023927754632251053,
        -0.5814739811603495,
        0.7953091522915536,
        0.12981068386578265,
        0.6055264311768658,
        0.1632697989130747,
        0.28944362072852936,
        0.6776429125615797,
        0.8798199307108834,
        0.11329152915883411,
        0.5105950901445448,
        -0.9687842602423744,
        0.6231762703987622,
        -0.4588344178004825,
        0.04620780710656658,
        0.8263314734181195,
        -0.9501778402740988,
        -0.9014130605723651,
        -0.3993489064988729,
        0.574829399121761,
        0.42645185193244006,
        0.09351497088782468,
        -0.40411145666056547,
        0.14709714282049946,
        -0.07025749835464146,
        -0.4493943145202912,
        0.7039566870869216,
        -0.1291748094862767,
        -0.3089489069755772,
        -0.8318421075584896,
        -0.8425308221232922,
        0.6697776076245672,
        0.39630047136802604,
        0.06326295337967824,
        -0.9458955183058462,
        -0.7979343857110548,
        -0.42371193913249405,
        -0.9561775525680895,
        -0.5440347664509502,
        0.3282284940682316,
        0.42583537664662785,
        0.9343594159930191,
        0.6778415107030966,
        0.2469318173440509,
        -0.27033129784493404,
        0.5087592313701235,
        -0.734391783642592,
        -0.8916816033839471,
        0.9054789099412375,
        0.14265095187214571,
        0.913570485927538,
        0.8255901718354608,
        0.7741832115992417
      ],
      "Bias": 0.3026282770377793
    },
    {
      "Weights": [
        -0.21064321812826592,
        0.8482573478013999,
        -0.5556142063770566,
        -0.9068469991504522,
        0.06150135502194565,
        0.0818044675845615,
        0.38157263781814565,
        0.48561867707791206,
        0.8142608070460093,
        0.20177708436646702,
        -0.4828742624867668,
        0.44623849295612605,
        -0.6783565337317023,
        0.9618708498513402,
        -0.9375039390712725,
        -0.6295703161721731,
        -0.009208837540429782,
        0.7387019005630946,
        -0.9105155026138415,
        0.08225590780246073,
        0.7348726635357845,
        0.07780274901602557,
        0.22788728697564875,
        0.10689152827971027,
        0.4579861756241199,
        -0.5688104763801413,
        0.5537428923913155,
        0.17178055902027145,
        -0.9725640169506589,
        0.9591369582191835,
        0.5764895049165357,
        0.8429277614004764,
        0.7156619362440135,
        0.8738540305574372,
        0.3700228833462642,
        -0.23571538460455055,
        0.7505899744044722,
        0.3861115481402555,
        -0.5250878120310005,
        0.14214794626822003,
        -0.138669025558808,
        0.8936060357652067,
        -0.06852034670533746,
        -0.46802532183156687,
        0.870167754971346,
        -0.9439888711349071,
        0.9219078153905509,
        -0.7827345708836349,
        -0.7822434926586856,
        0.614613471331912,
        -0.6370863771255317,
        -0.32171646847394275,
        0.6267803507353509,
        0.44107525511861145,
        0.5088379274700752,
        -0.0884722446861077,
        0.5521554392510843,
        0.0008640361718739165,
        -0.5041192986991008,
        -0.3503651940575174,
        -0.7133811666153349,
        0.6568710589855753,
        -0.3380832847464861,
        -0.34421290483361655,
        -0.9431991127974161,
        0.3186913755751506,
        -0.8281134847821463,
        0.7416441166411962,
        -0.7505494903003312,
        -0.682056219985899,
        0.44923129160225894,
        0.46213183270307945,
        0.4384275807113629,
        0.651817114789579,
        0.03244105700548405,
        -0.8831544565589443,
        -0.9264468691648329,
        0.010600575389614786,
        0.3049166313221485,
        0.7541380248828145,
        -0.9322377222156751,
        0.3506324958379827,
        -0.5322653423145176,
        -0.06752136882296467,
        -0.584228015686472,
        0.15116920877359763,
        -0.5597299096170542,
        0.6742527167486994,
        0.3186199459500234,
        0.6232021692002407,
        -0.6567653798501609,
        0.8763660219322031,
        -0.503509096789174,
        -0.8387827059253521,
        0.43886241613944743,
        -0.2635745814047309,
        0.736311221049313,
        0.10282053333049235,
        0.1046649115749605,
        0.16245569335510024,
        -0.8349205494004777,
        0.32166272919395666,
        0.5589656330290571,
        0.372997882935614,
        -0.8805984997960424,
        -0.7336712597998162,
        -0.8956576983041592,
        0.5031877754021807,
        -0.6315362371312258,
        -0.7143258490935407,
        0.04385408219831355,
        -0.386898200583092,
        0.25970171945731124,
        -0.4759249887713757,
        -0.4620530924931485,
        0.1182170492085024,
        0.24662243303592324,
        0.7325378685405444,
        0.628331912013206,
        0.8565137392488746,
        0.7535623585092288,
        -0.45878593731893325,
        0.09492075178273796,
        0.48441818486864285,
        0.40375530078181354,
        -0.4202333331561684,
        -0.7313992769109745,
        -0.49083311931393814,
        -0.9141037656044263,
        -0.8366815841490973,
        -0.30961209689355307,
        0.6182932156859573,
        -0.9397233792536289,
        0.3147088193177028,
        -0.7782092506762897,
        -0.9378115365811319,
        -0.5481230064196474,
        0.3871748755377864,
        0.851123072274951,
        -0.9434348634479296,
        0.8766805301678404,
        -0.6969135304955643,
        -0.7383454055509403,
        0.7944251482332121,
        -0.598562976348824,
        -0.6337197695875298,
        0.23820878241404086,
        -0.6754044148048705,
        -0.7521131212165885,
        -0.22028438631278402,
        -0.6871244436594621,
        -0.9322450838723606,
        -0.8174038887557065,
        0.4203526854301618,
        0.5616576590370059,
        0.7920391851459807,
        0.856088928079149,
        0.8927246272165004,
        -0.5713698780323508,
        0.39523265211847414,
        -0.7748751813740717,
        0.33618217299172604,
        -0.163516583875696,
        0.08031094715627352,
        0.16631132702275275,
        0.3043782160009276,
        -0.4519796209961344,
        -0.8107162872267883,
        -0.612714048009674,
        -0.6908785485231563,
        -0.6139850573319453,
        -0.7378675331419651,
        0.9199884166894359,
        0.8660175450325169,
        -0.3978510881788514,
        -0.6245667881673783,
        -0.010566137097101524,
        0.5453778424889906,
        0.19040309598783178,
        0.914161313337913,
        0.33991717160891954,
        -0.1507831823055339,
        0.6138714683468847,
        -0.8585091100135948,
        0.5466001228063933,
        0.9822078217219861,
        -0.24259384571024178,
        0.5078948199769502,
        -0.3777021786777819,
        -0.757693088795101,
        0.37062479609397014,
        0.6095609895357155,
        0.3847401012322529,
        0.8639834137798177,
        -0.7767647550317859,
        -0.6329926728815032,
        0.20046381895784338,
        -0.5994620260524105,
        -0.7466017456980852,
        0.5817404240573727
      ],
      "Bias": 0.03497985675075799
    },
    {
      "Weights": [
        0.8397572894367527,
        0.9716930668646553,
        0.2511216772930114,
        -0.3815955483083505,
        -0.06635801819624798,
        0.2977273429954015,
        0.5511787846852225,
        0.6624787055808095,
        -0.8510197550563201,
        -0.20468088943220375,
        0.40235497201291404,
        -0.6794933860962389,
        0.14150051285098253,
        0.1330464479130773,
        0.05852633138449703,
        -0.4502373975891374,
        0.3596023837605906,
        -0.8235908946889281,
        0.21936417461340652,
        -0.014469214850195256,
        -0.7690732096492465,
        -0.873918149505424,
        0.18002631777187394,
        0.3394078553349862,
        -0.6208592860834223,
        0.9209232989653489,
        -0.527598365138602,
        -0.9496591368541282,
        -0.11573292893062048,
        0.07551965046121922,
        0.6058841793310052,
        -0.7520909350610826,
        0.03053419858332984,
        -0.8178625041087053,
        0.902117722835954,
        -0.26839488426712,
        -0.03327994378466392,
        -0.8316680548202297,
        0.4874622659984791,
        0.007530907814728538,
        -0.12766412639381453,
        0.9821022588570567,
        -0.6006294253763419,
        -0.2756043884396103,
        -0.8019970452414577,
        -0.03685889346345317,
        0.5955052244309793,
        0.16676237884661793,
        0.008191202850257095,
        0.18009168377550333,
        -0.21602890964340693,
        -0.49926546980734265,
        -0.8776279651174722,
        0.24853425492383852,
        0.9540495560377353,
        -0.043161031865394994,
        -0.7261845007950801,
        0.6347976225122025,
        0.1314209281269798,
        -0.2184944578367305,
        -0.7282207022308278,
        -0.643669747797607,
        0.9166501724833664,
        0.013287969931262245,
        0.037586602353120835,
        -0.9769358210399937,
        0.048896818238133744,
        0.17894395236150196,
        -0.9943164175102972,
        -0.4433573193903825,
        0.5590073672660507,
        0.3348769218664138,
        0.7372796801403267,
        0.2212911679655878,
        0.12968850192591952,
        -0.16910420161968054,
        0.05421141527700302,
        -0.7937261041558948,
        0.36380233977588516,
        0.8369595074250173,
        -0.6293153764053188,
        -0.7348835895064129,
        -0.34814394451993647,
        0.7802048454081059,
        0.6659592294002881,
        -0.5971639196607623,
        -0.780647690793328,
        -0.1600379873309561,
        -0.8368848240189016,
        0.959594680717093,
        0.49476271259588156,
        0.020660803218109702,
        0.6393389857140508,
        -0.4836500134156959,
        0.7725676657488683,
        -0.5112202456872998,
        0.9961460438808953,
        0.07136184691520353,
        -0.6052428302538624,
        0.9182972400690534,
        -0.5538255945338009,
        -0.40300926279562144,
        0.27903944634457956,
        -0.7389518619778641,
        -0.849756313125748,
        -0.41079225675757114,
        -0.30931637073197127,
        0.3663125495887454,
        0.06640116698877385,
        -0.40434827318137045,
        -0.5236355851682712,
        -0.6384622262505056,
        0.4070057288146056,
        -0.6197281089617181,
        -0.3948227032571191,
        -0.5288269914138032,
        -0.4443789303792425,
        -0.24109429375205293,
        -0.1909299939751704,
        0.5319382495796243,
        0.5984015113937378,
        0.09257102162098096,
        0.8778951432645006,
        0.2390453638363974,
        -0.2766229525983851,
        0.8709236645542477,
        -0.8584374652643889,
        0.9706921878669028,
        -0.5700411115014283,
        0.6017231319076835,
        0.8543899394157937,
        0.8506356607319161,
        -0.7998517246228368,
        0.7495216624016716,
        0.6047183260234057,
        0.2390429614124414,
        0.8854148516586058,
        0.8746540539856942,
        0.6500703071278875,
        -0.021071187739861386,
        -0.1717265618174033,
        -0.4855546136829214,
        0.9989577920385833,
        0.40595356936161053,
        0.031246035820418516,
        0.3715588343554519,
        -0.4579767336279096,
        -0.548393071356104,
        -0.35506195078350244,
        0.6441206825781216,
        -0.4758250555264488,
        -0.8455568743624139,
        0.31069597389006787,
        -0.04822757761508012,
        -0.3910604610451125,
        -0.6131296252836709,
        0.4905921956588497,
        -0.12019435736901007,
        -0.7245706496663047,
        -0.6831629423373349,
        0.6493960888616535,
        0.40911810446832964,
        0.7854651327204354,
        -0.05512280264802205,
        0.8074667730423479,
        0.11498096192287877,
        -0.8373574118101315,
        0.7743674644144518,
        -0.4147978531774502,
        -0.5065337939648793,
        0.6542001915080755,
        0.8664179060196231,
        -0.019513817513972076,
        -0.8897453830578675,
        -0.4532242723810792,
        0.2763183381466532,
        0.7195059993775748,
        -0.2821095535548904,
        0.16088404470300466,
        0.3415146935467426,
        0.5639210620960438,
        -0.6564780576518022,
        0.7220064895667286,
        0.7446480928277404,
        0.6027664794682424,
        -0.0896806354586579,
        0.395250431988565,
        -0.6336243553960015,
        -0.6890117954404353,
        0.13617785432495655,
        0.8098351421535621,
        -0.5381564257386638,
        0.31081445399223284,
        -0.9523216572584381,
        -0.6846503187050217,
        -0.3782180077567252,
        -0.21125749424449125,
        -0.3492505695036082,
        0.7811812726126333,
        0.1814699350381468
      ],
      "Bias": -0.0908910076670798
    },
    {
      "Weights": [
        0.36554931342466634,
        -0.9704949657790288,
        -0.28077339791071343,
        0.805853219450458,
        -0.18510663996698973,
        -0.6263418170666859,
        -0.3279803595670593,
        0.2257981095349304,
        0.4041219644974814,
        0.8335002675099521,
        0.1508991982241359,
        -0.7842143725295522,
        0.2561895147455533,
        0.5458465638949883,
        -0.8305487682258643,
        -0.14635596393305295,
        -0.8208484967862608,
        -0.4917260669468805,
        0.2823486112275879,
        -0.7135313655503368,
        0.7138379544979536,
        -0.24578129721210706,
        -0.6167868956199234,
        -0.4508062623208323,
        0.8389127914136376,
        0.9771574500882547,
        -0.27327768023677224,
        -0.8019359290219062,
        -0.9946320875221382,
        0.8715903132311398,
        0.754675436152775,
        0.7345771033550814,
        -0.5914471885998608,
        0.7143875093391325,
        0.4357151771350485,
        0.1471337506579562,
        -0.7755653667758516,
        0.9774018554005031,
        -0.05775484692204713,
        0.7236282547415156,
        -0.9102212125740611,
        -0.06973388206205289,
        -0.34556998110678394,
        0.9701278981193693,
        0.723103974225884,
        0.5405770288678191,
        0.20475553680060754,
        -0.4674238775336793,
        0.8021141791396826,
        0.7679837850232176,
        -0.9710355906473288,
        0.6016931961444951,
        -0.44423818742784393,
        -0.2673910914613783,
        -0.8582236849764512,
        -0.7832643498268317,
        0.5195666229584941,
        0.907248026602457,
        0.37993362225181926,
        -0.973680689412169,
        -0.694356673495317,
        0.09216469844459074,
        0.3088745155138004,
        0.1216657327015207,
        0.22114080048925144,
        -0.31693026425560766,
        -0.07347765494818037,
        -0.6606012797537926,
        0.739303575010112,
        -0.5847703016538727,
        0.24124855626591923,
        -0.24820987994468036,
        -0.534825988737216,
        -0.28862671278048124,
        0.29347010557315345,
        0.48789351036708495,
        0.3364358357136217,
        -0.32808636879467046,
        0.6540108235144293,
        0.23038617957011343,
        -0.013331302241170073,
        -0.9569683795058346,
        -0.09629335936553418,
        -0.7033375703601323,
        0.07444753320671027,
        -0.5676940515800784,
        -0.15921993810398305,
        -0.17594791355966377,
        0.8329276437770059,
        0.9478172825192324,
        -0.6130546431129373,
        0.04320901522611642,
        0.7636747852738546,
        -0.5446214327533125,
        0.04435530720055647,
        0.7394092974151305,
        -0.7035521754434493,
        -0.03592370460316219,
        0.17857766236140749,
        0.8645117064727368,
        -0.09403416217835947,
        0.740132822807704,
        -0.7538236907003668,
        0.9997557500290923,
        -0.36069156948437153,
        0.08553241399594547,
        -0.5656958010631379,
        0.32785733953621055,
        -0.8388564550303178,
        -0.6332274174022074,
        -0.9310853168778664,
        -0.7284551899495296,
        -0.8336697581004227,
        -0.37135350869727113,
        0.07586509894604898,
        -0.7079880904717917,
        -0.6314733832712947,
        -0.7720908373660315,
        0.24812411653921207,
        -0.9438253006150482,
        -0.423072012684928,
        -0.6677787723877029,
        0.3886649885366813,
        0.6426191617495753,
        -0.7900623213505173,
        -0.11311630228477809,
        0.7423562011170415,
        0.48078732814648917,
        0.17892526239474216,
        0.4912046210855243,
        -0.4264115319141888,
        -0.1174620877417043,
        -0.8162023249726046,
        0.3344329682028815,
        -0.4028473615369579,
        -0.34670736798382373,
        -0.4228000358918158,
        -0.9581852600980285,
        0.004639538296401957,
        0.5480343786907178,
        0.8961396690820747,
        -0.9962398819430568,
        0.07615747293887454,
        0.3032375939523857,
        -0.5878478579806423,
        0.23148243343800923,
        0.9719700611687525,
        -0.7973815698816923,
        0.4985963735957337,
        0.6893014930334755,
        0.47328502242205284,
        -0.1869682472072337,
        -0.2107893575656683,
        -0.9395744372148592,
        0.7816667393458463,
        0.38573127658497164,
        -0.17077097168663724,
        0.692279701067767,
        0.8969952217682517,
        -0.2802180566200727,
        0.2764067051399326,
        0.4701897708616378,
        0.5259784523535072,
        -0.35616292638312796,
        -0.8194954320864318,
        0.5625577936908706,
        0.5988991391669878,
        -0.46139808596139853,
        -0.9052670166914698,
        0.6720129404163306,
        0.9695865688678986,
        0.3447490920014935,
        0.5396893763540238,
        0.1928792805438131,
        -0.573863410834921,
        0.19079063966749454,
        -0.29915062764603917,
        -0.7068355696706494,
        0.5615088197817519,
        -0.9426363573868318,
        0.2345590594302842,
        -0.24687909530466268,
        -0.8538579775437041,
        0.7578382451175203,
        -0.5297313178057161,
        -0.5656236272675643,
        -0.1927570889681739,
        0.047461069453702764,
        -0.40055648294733204,
        0.21487093979699678,
        -0.8627014999069389,
        -0.042226373773747716,
        0.5327609273867568,
        -0.22958746767592253,
        0.12482696060855147,
        0.9687140659914635,
        -0.7678637212282616,
        -0.8634681190883444,
        -0.750119068648336,
        0.8761710978081403
      ],
      "Bias": 0.5726098403707174
    }
  ],
  "layerBot": [
    {
      "Weights": [
        0.8026980469943237
      ],
      "Bias": 0.8958280927919473
    },
    {
      "Weights": [
        0.2898844245867762
      ],
      "Bias": 0.6787251623655148
    },
    {
      "Weights": [
        0.6297829436513616
      ],
      "Bias": -0.01058969769143736
    },
    {
      "Weights": [
        0.9948397833258023
      ],
      "Bias": 0.551552381113023
    },
    {
      "Weights": [
        0.13317558299103616
      ],
      "Bias": -0.1765872357256415
    },
    {
      "Weights": [
        0.21876262752132813
      ],
      "Bias": -0.17244891686885933
    },
    {
      "Weights": [
        -0.010754383169213066
      ],
      "Bias": -0.47285144177654614
    },
    {
      "Weights": [
        0.6554886656748318
      ],
      "Bias": -0.2240353894668088
    },
    {
      "Weights": [
        0.17179502647624045
      ],
      "Bias": -0.8757250199472065
    },
    {
      "Weights": [
        -0.7868171315826848
      ],
      "Bias": -0.4848965431687273
    },
    {
      "Weights": [
        0.5889087213432846
      ],
      "Bias": -0.2808505984486799
    },
    {
      "Weights": [
        0.6850354012346458
      ],
      "Bias": -0.5618650277708351
    },
    {
      "Weights": [
        0.17774814824048213
      ],
      "Bias": 0.9948853125637198
    },
    {
      "Weights": [
        -0.589629594401936
      ],
      "Bias": -0.6204566089935188
    },
    {
      "Weights": [
        0.8374756326545432
      ],
      "Bias": -0.22685757987766797
    },
    {
      "Weights": [
        -0.0049414719275783225
      ],
      "Bias": 0.6282536567772179
    },
    {
      "Weights": [
        -0.10053711642414831
      ],
      "Bias": 0.5596036944900744
    },
    {
      "Weights": [
        -0.8526307901695315
      ],
      "Bias": -0.41946146435218357
    },
    {
      "Weights": [
        -0.2009140534723476
      ],
      "Bias": 0.08604422781440024
    },
    {
      "Weights": [
        0.430471028424253
      ],
      "Bias": -0.27031215199606506
    },
    {
      "Weights": [
        -0.1962011998525911
      ],
      "Bias": -0.48491961932540817
    },
    {
      "Weights": [
        0.39323030058717334
      ],
      "Bias": 0.3331470564086849
    },
    {
      "Weights": [
        0.1896767628747691
      ],
      "Bias": 0.5635594973445188
    },
    {
      "Weights": [
        -0.24134373957748956
      ],
      "Bias": 0.9236600552477219
    },
    {
      "Weights": [
        0.6404774203481098
      ],
      "Bias": -0.7937322480609288
    },
    {
      "Weights": [
        -0.30327458410609953
      ],
      "Bias": 0.741560779370636
    },
    {
      "Weights": [
        -0.5744567567419419
      ],
      "Bias": -0.8052938312481706
    },
    {
      "Weights": [
        0.8547133854855775
      ],
      "Bias": 0.3017669601878903
    },
    {
      "Weights": [
        -0.01407349395392099
      ],
      "Bias": 0.03123218207519618
    },
    {
      "Weights": [
        -0.15886295460949318
      ],
      "Bias": -0.6908556486291182
    },
    {
      "Weights": [
        -0.08881954204343756
      ],
      "Bias": -0.4772519760175019
    },
    {
      "Weights": [
        0.8310447968540613
      ],
      "Bias": -0.6316040465758179
    },
    {
      "Weights": [
        0.41422396774352954
      ],
      "Bias": 0.6694673542407348
    },
    {
      "Weights": [
        0.2963210164495478
      ],
      "Bias": -0.6593157342917009
    },
    {
      "Weights": [
        0.08773329376420014
      ],
      "Bias": -0.9185555344124651
    },
    {
      "Weights": [
        -0.012692936082617567
      ],
      "Bias": -0.47364820838008004
    },
    {
      "Weights": [
        0.2933284326453458
      ],
      "Bias": -0.7609950959247737
    },
    {
      "Weights": [
        -0.5915642414435751
      ],
      "Bias": 0.10828496756117412
    },
    {
      "Weights": [
        -0.2600777908110622
      ],
      "Bias": 0.2989927699665609
    },
    {
      "Weights": [
        -0.8967023344301435
      ],
      "Bias": -0.95823826083242
    },
    {
      "Weights": [
        -0.35220614430151453
      ],
      "Bias": -0.1320318086588368
    },
    {
      "Weights": [
        0.7012374925552489
      ],
      "Bias": -0.7241905046870201
    },
    {
      "Weights": [
        -0.946952496900632
      ],
      "Bias": -0.6360515853652113
    },
    {
      "Weights": [
        -0.8637492698664095
      ],
      "Bias": -0.42825366855812896
    },
    {
      "Weights": [
        -0.13838320063550513
      ],
      "Bias": -0.5313347133208838
    },
    {
      "Weights": [
        0.5897511462240863
      ],
      "Bias": 0.6876892780378554
    },
    {
      "Weights": [
        0.28173623097510125
      ],
      "Bias": 0.8046165191160721
    },
    {
      "Weights": [
        0.26597468553772763
      ],
      "Bias": 0.6300691101099261
    },
    {
      "Weights": [
        0.4118619581691012
      ],
      "Bias": 0.5922618224591254
    },
    {
      "Weights": [
        0.7282775251156326
      ],
      "Bias": 0.6769866775121578
    },
    {
      "Weights": [
        0.8778337403743752
      ],
      "Bias": 0.332896588824078
    },
    {
      "Weights": [
        0.5946203321348655
      ],
      "Bias": 0.38972745253760466
    },
    {
      "Weights": [
        0.7560972285496441
      ],
      "Bias": 0.3774671544199968
    },
    {
      "Weights": [
        -0.7027872156320383
      ],
      "Bias": -0.18963478884392349
    },
    {
      "Weights": [
        -0.2886153528474319
      ],
      "Bias": 0.44877503717194944
    },
    {
      "Weights": [
        0.7805876993642864
      ],
      "Bias": -0.06337396054087585
    },
    {
      "Weights": [
        0.07242225920089407
      ],
      "Bias": 0.49730149517861033
    },
    {
      "Weights": [
        -0.7952224170685533
      ],
      "Bias": -0.5273341397434117
    },
    {
      "Weights": [
        -0.19625951356440963
      ],
      "Bias": -0.42429576242038824
    },
    {
      "Weights": [
        -0.6726790527685689
      ],
      "Bias": 0.900073882835807
    },
    {
      "Weights": [
        -0.2261609345738027
      ],
      "Bias": -0.27848068477132937
    },
    {
      "Weights": [
        -0.20413660678871703
      ],
      "Bias": 0.7385630774381604
    },
    {
      "Weights": [
        0.14723506648021356
      ],
      "Bias": 0.13672701691164435
    },
    {
      "Weights": [
        -0.6152319641715709
      ],
      "Bias": -0.5789048133572282
    },
    {
      "Weights": [
        0.27156659845159425
      ],
      "Bias": -0.5480906239431664
    },
    {
      "Weights": [
        -0.9952261765927245
      ],
      "Bias": -0.35803703095330097
    },
    {
      "Weights": [
        -0.5372847064555906
      ],
      "Bias": 0.3738790550121358
    },
    {
      "Weights": [
        0.7952715339638909
      ],
      "Bias": -0.5424585232098139
    },
    {
      "Weights": [
        0.25253610309431984
      ],
      "Bias": 0.12018993577031578
    },
    {
      "Weights": [
        0.5112171010397348
      ],
      "Bias": -0.3775032716210762
    },
    {
      "Weights": [
        -0.36757759191188677
      ],
      "Bias": -0.19282499600177105
    },
    {
      "Weights": [
        0.4068464925670585
      ],
      "Bias": -0.04613862313429018
    },
    {
      "Weights": [
        0.5196063864229215
      ],
      "Bias": 0.5267853769650903
    },
    {
      "Weights": [
        -0.8445018677842874
      ],
      "Bias": -0.1361058800899121
    },
    {
      "Weights": [
        -0.5403292467456496
      ],
      "Bias": 0.5534337095170545
    },
    {
      "Weights": [
        0.04190502583143263
      ],
      "Bias": 0.9769473847513062
    },
    {
      "Weights": [
        -0.7861877581565409
      ],
      "Bias": -0.9185511449417681
    },
    {
      "Weights": [
        -0.08178779098571753
      ],
      "Bias": -0.23894836267065434
    },
    {
      "Weights": [
        -0.8630894315085145
      ],
      "Bias": 0.0005597396864245319
    },
    {
      "Weights": [
        0.33869291751730146
      ],
      "Bias": 0.7276775597360607
    },
    {
      "Weights": [
        0.2654180794411236
      ],
      "Bias": 0.6414450834652328
    },
    {
      "Weights": [
        -0.3804774376279604
      ],
      "Bias": 0.25403184834305237
    },
    {
      "Weights": [
        -0.391532256103041
      ],
      "Bias": 0.8849305275751684
    },
    {
      "Weights": [
        -0.43685096251337097
      ],
      "Bias": -0.7200223585663152
    },
    {
      "Weights": [
        0.35116692376751746
      ],
      "Bias": 0.734974348073566
    },
    {
      "Weights": [
        0.0271630229253923
      ],
      "Bias": 0.7938235247685421
    },
    {
      "Weights": [
        -0.36750497629109846
      ],
      "Bias": -0.9961968487173186
    },
    {
      "Weights": [
        0.521877000670206
      ],
      "Bias": -0.49593693201329114
    },
    {
      "Weights": [
        0.945419020700301
      ],
      "Bias": -0.7654105838391994
    },
    {
      "Weights": [
        0.8990738643460121
      ],
      "Bias": -0.4973335677084364
    },
    {
      "Weights": [
        -0.08728491653727566
      ],
      "Bias": 0.32613400831257544
    },
    {
      "Weights": [
        -0.8521780844884669
      ],
      "Bias": 0.20244839172758655
    },
    {
      "Weights": [
        -0.4054933534730577
      ],
      "Bias": 0.8225981581560582
    },
    {
      "Weights": [
        0.028805545119272358
      ],
      "Bias": 0.3100794741342703
    },
    {
      "Weights": [
        0.2805227457037984
      ],
      "Bias": 0.37295860630478606
    },
    {
      "Weights": [
        0.9485980586599378
      ],
      "Bias": 0.2999457875871703
    },
    {
      "Weights": [
        -0.001142952981441403
      ],
      "Bias": 0.20821658883148708
    },
    {
      "Weights": [
        -0.019712351713582654
      ],
      "Bias": 0.41182712948479483
    },
    {
      "Weights": [
        0.12943842824236906
      ],
      "Bias": 0.141866803925508
    },
    {
      "Weights": [
        -0.767750837423953
      ],
      "Bias": 0.24415110386791405
    },
    {
      "Weights": [
        -0.10814679301444918
      ],
      "Bias": -0.3076266008947781
    },
    {
      "Weights": [
        0.7562203984606066
      ],
      "Bias": -0.11713917747318736
    },
    {
      "Weights": [
        0.46703705778240523
      ],
      "Bias": 0.9016021233935974
    },
    {
      "Weights": [
        -0.358389221090177
      ],
      "Bias": -0.6145629473876777
    },
    {
      "Weights": [
        0.5247173638445624
      ],
      "Bias": 0.8415421856681775
    },
    {
      "Weights": [
        0.6347936787557509
      ],
      "Bias": -0.6980369526335585
    },
    {
      "Weights": [
        0.5900188212602213
      ],
      "Bias": -0.8667986018566655
    },
    {
      "Weights": [
        -0.985476977796147
      ],
      "Bias": 0.8582900684140418
    },
    {
      "Weights": [
        -0.3484730986157595
      ],
      "Bias": 0.47675360459596994
    },
    {
      "Weights": [
        -0.9616361608664692
      ],
      "Bias": -0.8393564463886481
    },
    {
      "Weights": [
        -0.46802766685600194
      ],
      "Bias": 0.9561994630417492
    },
    {
      "Weights": [
        0.9052903566284989
      ],
      "Bias": 0.80122984273082
    },
    {
      "Weights": [
        -0.6880202489474193
      ],
      "Bias": -0.22366924879027972
    },
    {
      "Weights": [
        -0.6864331162358303
      ],
      "Bias": -0.1674914219552246
    },
    {
      "Weights": [
        -0.6190034735726863
      ],
      "Bias": -0.941364310290761
    },
    {
      "Weights": [
        0.45197155853296556
      ],
      "Bias": -0.7683637706504642
    },
    {
      "Weights": [
        0.9136328373385443
      ],
      "Bias": 0.07555923730392089
    },
    {
      "Weights": [
        0.15733960346970632
      ],
      "Bias": 0.5253099871805282
    },
    {
      "Weights": [
        -0.26975854726223625
      ],
      "Bias": -0.1725084531900949
    },
    {
      "Weights": [
        0.5162950138351852
      ],
      "Bias": -0.9085731383814158
    },
    {
      "Weights": [
        -0.054056850633848796
      ],
      "Bias": -0.944947199665347
    },
    {
      "Weights": [
        -0.7177296729290625
      ],
      "Bias": 0.9735183256552864
    },
    {
      "Weights": [
        -0.381878228964572
      ],
      "Bias": -0.1519851251444604
    },
    {
      "Weights": [
        -0.6202809476309796
      ],
      "Bias": -0.8402720036929665
    },
    {
      "Weights": [
        -0.514010641835076
      ],
      "Bias": -0.3026404971173806
    },
    {
      "Weights": [
        0.5375948822396388
      ],
      "Bias": -0.3019174023780842
    },
    {
      "Weights": [
        0.9796747757470565
      ],
      "Bias": -0.6065855478461872
    },
    {
      "Weights": [
        0.9665361480517949
      ],
      "Bias": -0.43391938877691916
    },
    {
      "Weights": [
        0.9787561576945747
      ],
      "Bias": 0.5287488660941624
    },
    {
      "Weights": [
        0.3059227662128827
      ],
      "Bias": -0.04306514716470833
    },
    {
      "Weights": [
        0.5333966418094056
      ],
      "Bias": 0.07684200057070578
    },
    {
      "Weights": [
        -0.7957794163541811
      ],
      "Bias": 0.4597452658192902
    },
    {
      "Weights": [
        -0.8883586001621703
      ],
      "Bias": 0.2187625833131437
    },
    {
      "Weights": [
        0.4649697732826277
      ],
      "Bias": -0.014997917395404903
    },
    {
      "Weights": [
        -0.7229440338737646
      ],
      "Bias": -0.6531124718872223
    },
    {
      "Weights": [
        -0.7175348148040339
      ],
      "Bias": 0.9661961610278769
    },
    {
      "Weights": [
        0.5554757752193205
      ],
      "Bias": 0.5305761600169476
    },
    {
      "Weights": [
        -0.011457436529021647
      ],
      "Bias": -0.9121272751780758
    },
    {
      "Weights": [
        0.2138353918890561
      ],
      "Bias": 0.7075479260261595
    },
    {
      "Weights": [
        -0.767624177823408
      ],
      "Bias": -0.2347228745555604
    },
    {
      "Weights": [
        0.2400852016482129
      ],
      "Bias": 0.7926270002155238
    },
    {
      "Weights": [
        0.13697505507542984
      ],
      "Bias": -0.2512437178090484
    },
    {
      "Weights": [
        -0.8550469113991794
      ],
      "Bias": 0.7515762757033289
    },
    {
      "Weights": [
        -0.1091342357515579
      ],
      "Bias": -0.8594742565898481
    },
    {
      "Weights": [
        -0.601220244035276
      ],
      "Bias": 0.20156845985413585
    },
    {
      "Weights": [
        0.05601794269379057
      ],
      "Bias": 0.9837527082136159
    },
    {
      "Weights": [
        -0.36241069684183247
      ],
      "Bias": -0.7292197133922124
    },
    {
      "Weights": [
        -0.43601446941699784
      ],
      "Bias": -0.5572553759051829
    },
    {
      "Weights": [
        -0.8464457583455791
      ],
      "Bias": 0.08265868138190502
    },
    {
      "Weights": [
        -0.4744302121066176
      ],
      "Bias": 0.13381621092244855
    },
    {
      "Weights": [
        -0.7132189620194023
      ],
      "Bias": -0.49160540683381604
    },
    {
      "Weights": [
        -0.1023466727963327
      ],
      "Bias": -0.5034733351551081
    },
    {
      "Weights": [
        0.8859717561842286
      ],
      "Bias": -0.5176731106673895
    },
    {
      "Weights": [
        -0.28126647754577727
      ],
      "Bias": -0.6123710028884545
    },
    {
      "Weights": [
        0.5948229677880881
      ],
      "Bias": 0.10211087112807271
    },
    {
      "Weights": [
        0.07949867940431421
      ],
      "Bias": -0.10764024420219098
    },
    {
      "Weights": [
        -0.37287931339286917
      ],
      "Bias": 0.8253985357469531
    },
    {
      "Weights": [
        -0.31182958138874395
      ],
      "Bias": 0.25860790035147607
    },
    {
      "Weights": [
        -0.8036299947171189
      ],
      "Bias": -0.2082557002136456
    },
    {
      "Weights": [
        -0.5384212033642968
      ],
      "Bias": 0.6358781467523127
    },
    {
      "Weights": [
        -0.11214920206836232
      ],
      "Bias": -0.8168074351159033
    },
    {
      "Weights": [
        -0.9444402769671241
      ],
      "Bias": 0.6848540169795179
    },
    {
      "Weights": [
        0.3492710760822395
      ],
      "Bias": -0.8737162928788248
    },
    {
      "Weights": [
        0.08547331742761943
      ],
      "Bias": -0.21203793262115544
    },
    {
      "Weights": [
        -0.8475808289368831
      ],
      "Bias": 0.6111084691419182
    },
    {
      "Weights": [
        0.8954318529329479
      ],
      "Bias": -0.3052269611283962
    },
    {
      "Weights": [
        -0.9920992220984847
      ],
      "Bias": -0.5014113035595256
    },
    {
      "Weights": [
        -0.03593931809425577
      ],
      "Bias": 0.8780392831235062
    },
    {
      "Weights": [
        -0.7820502320772199
      ],
      "Bias": -0.2302680368428054
    },
    {
      "Weights": [
        0.22469046743816823
      ],
      "Bias": -0.2699477980528553
    },
    {
      "Weights": [
        -0.877277908895516
      ],
      "Bias": 0.4030487794470512
    },
    {
      "Weights": [
        0.8180316560079406
      ],
      "Bias": -0.07236760652267749
    },
    {
      "Weights": [
        -0.5767076442079473
      ],
      "Bias": 0.9618831770281073
    },
    {
      "Weights": [
        -0.07243482141107382
      ],
      "Bias": -0.7155409644861938
    },
    {
      "Weights": [
        0.23044970694168665
      ],
      "Bias": -0.5099363213485911
    },
    {
      "Weights": [
        -0.3166767011224947
      ],
      "Bias": 0.794007255341326
    },
    {
      "Weights": [
        0.004889119909980311
      ],
      "Bias": -0.7730450966455462
    },
    {
      "Weights": [
        -0.8751260433271469
      ],
      "Bias": -0.96888607102431
    },
    {
      "Weights": [
        -0.9175975073203857
      ],
      "Bias": -0.03826578637725586
    },
    {
      "Weights": [
        -0.8034955105733181
      ],
      "Bias": -0.09027814703439963
    },
    {
      "Weights": [
        0.23737514025770934
      ],
      "Bias": -0.007836983414361232
    },
    {
      "Weights": [
        -0.0662925521993094
      ],
      "Bias": 0.4090184278676319
    },
    {
      "Weights": [
        0.33606286221749593
      ],
      "Bias": -0.22817409450936266
    },
    {
      "Weights": [
        0.9233623467755465
      ],
      "Bias": -0.18690640320838658
    },
    {
      "Weights": [
        0.2277543835238236
      ],
      "Bias": -0.3392010004277576
    },
    {
      "Weights": [
        -0.9215814592088147
      ],
      "Bias": 0.38419257983669985
    },
    {
      "Weights": [
        0.5726810974969414
      ],
      "Bias": 0.29837892948100975
    },
    {
      "Weights": [
        -0.2571674647970672
      ],
      "Bias": -0.06659273268272003
    },
    {
      "Weights": [
        0.5597945178372796
      ],
      "Bias": -0.40467352356601316
    },
    {
      "Weights": [
        0.7763971883698855
      ],
      "Bias": -0.2921369420629789
    },
    {
      "Weights": [
        0.6359959773736803
      ],
      "Bias": 0.5260144447541424
    },
    {
      "Weights": [
        -0.9479671414250304
      ],
      "Bias": -0.39291930999127744
    },
    {
      "Weights": [
        0.0442069569176311
      ],
      "Bias": -0.2668118518923974
    },
    {
      "Weights": [
        0.2472341694022946
      ],
      "Bias": -0.7943061915557055
    },
    {
      "Weights": [
        0.3108993176804251
      ],
      "Bias": 0.5109764553376779
    },
    {
      "Weights": [
        0.5687603910591856
      ],
      "Bias": -0.12242957047824177
    },
    {
      "Weights": [
        0.9139693033697189
      ],
      "Bias": 0.48635646521883724
    },
    {
      "Weights": [
        0.10214223727194449
      ],
      "Bias": -0.5208099452299594
    },
    {
      "Weights": [
        0.1818121900571894
      ],
      "Bias": 0.9610325609568153
    },
    {
      "Weights": [
        -0.7060096981111952
      ],
      "Bias": 0.14860020125213302
    },
    {
      "Weights": [
        -0.3481150570564391
      ],
      "Bias": 0.6078464958667549
    },
    {
      "Weights": [
        0.4532813747713178
      ],
      "Bias": 0.5404945516282673
    },
    {
      "Weights": [
        -0.47029110813575703
      ],
      "Bias": -0.4990020453860097
    },
    {
      "Weights": [
        -0.8541503503160175
      ],
      "Bias": 0.1515531440467588
    },
    {
      "Weights": [
        -0.7890318615397067
      ],
      "Bias": 0.5458485723154587
    },
    {
      "Weights": [
        -0.766163313258813
      ],
      "Bias": -0.4107371103922738
    },
    {
      "Weights": [
        0.1606749374245331
      ],
      "Bias": 0.6385373078739096
    },
    {
      "Weights": [
        -0.574937771287338
      ],
      "Bias": -0.16986277243970693
    },
    {
      "Weights": [
        -0.046075915454344196
      ],
      "Bias": -0.24174939291692865
    },
    {
      "Weights": [
        0.6237763990224163
      ],
      "Bias": -0.05982265526869357
    },
    {
      "Weights": [
        -0.7209560066605761
      ],
      "Bias": -0.38731738535510996
    },
    {
      "Weights": [
        0.8857142966893448
      ],
      "Bias": 0.422024082187922
    },
    {
      "Weights": [
        0.5785554604201517
      ],
      "Bias": 0.9328448830936054
    },
    {
      "Weights": [
        -0.7374064236132485
      ],
      "Bias": 0.9285907717770596
    },
    {
      "Weights": [
        -0.0663336248892259
      ],
      "Bias": 0.20106931829556185
    },
    {
      "Weights": [
        -0.49219328114978267
      ],
      "Bias": 0.897679277324051
    },
    {
      "Weights": [
        0.6057974693160331
      ],
      "Bias": -0.34642304679292113
    },
    {
      "Weights": [
        -0.47927265193119595
      ],
      "Bias": -0.5075429712578037
    },
    {
      "Weights": [
        0.3783050265382224
      ],
      "Bias": 0.8373601164968976
    },
    {
      "Weights": [
        0.6968557010097529
      ],
      "Bias": -0.3229571170057245
    },
    {
      "Weights": [
        -0.702625922879635
      ],
      "Bias": 0.9249585293591922
    },
    {
      "Weights": [
        -0.18113223761245645
      ],
      "Bias": -0.23541846974415082
    },
    {
      "Weights": [
        0.2761267346418277
      ],
      "Bias": 0.5660339028743999
    },
    {
      "Weights": [
        0.8271226880725797
      ],
      "Bias": 0.8861242052574116
    },
    {
      "Weights": [
        0.8466008856014671
      ],
      "Bias": 0.8882643740577465
    },
    {
      "Weights": [
        -0.40743205939706295
      ],
      "Bias": 0.43674288304678655
    },
    {
      "Weights": [
        0.9439128579154634
      ],
      "Bias": 0.27813170707589774
    },
    {
      "Weights": [
        -0.6509999347216868
      ],
      "Bias": -0.7941010694267672
    },
    {
      "Weights": [
        0.20440715183320823
      ],
      "Bias": 0.41214246706631674
    },
    {
      "Weights": [
        -0.8602291298670774
      ],
      "Bias": 0.8716504625931216
    },
    {
      "Weights": [
        -0.5366060046555565
      ],
      "Bias": 0.42723236346161175
    },
    {
      "Weights": [
        0.6326825321780256
      ],
      "Bias": -0.9719255230032704
    },
    {
      "Weights": [
        -0.653695105311423
      ],
      "Bias": -0.5109211673973205
    },
    {
      "Weights": [
        -0.3586704742658615
      ],
      "Bias": -0.5422462414405036
    },
    {
      "Weights": [
        -0.2173448363358207
      ],
      "Bias": -0.7736313474185019
    },
    {
      "Weights": [
        -0.2669110903093589
      ],
      "Bias": 0.08242136244658838
    },
    {
      "Weights": [
        0.23272717857752334
      ],
      "Bias": -0.1284330237217559
    },
    {
      "Weights": [
        0.8126066213317777
      ],
      "Bias": 0.6669276917990918
    },
    {
      "Weights": [
        0.08807896583231645
      ],
      "Bias": -0.6711478783060394
    },
    {
      "Weights": [
        -0.08930138537698862
      ],
      "Bias": 0.5846800598102317
    },
    {
      "Weights": [
        0.24220748154902383
      ],
      "Bias": 0.6097941807891158
    },
    {
      "Weights": [
        -0.8450971240041311
      ],
      "Bias": -0.08655189412791198
    },
    {
      "Weights": [
        -0.482314730785531
      ],
      "Bias": 0.6930738913303212
    },
    {
      "Weights": [
        -0.14539488250027277
      ],
      "Bias": 0.29771951290931375
    },
    {
      "Weights": [
        0.3977060823145535
      ],
      "Bias": -0.3937847982352637
    },
    {
      "Weights": [
        -0.3113980313952128
      ],
      "Bias": -0.06637494985726244
    },
    {
      "Weights": [
        0.17655171681142612
      ],
      "Bias": -0.24488301250308842
    },
    {
      "Weights": [
        -0.09042325598622647
      ],
      "Bias": 0.1481609544349598
    },
    {
      "Weights": [
        -0.45803222228593543
      ],
      "Bias": 0.2752356503507396
    },
    {
      "Weights": [
        -0.4303558450763145
      ],
      "Bias": 0.08031312839178928
    },
    {
      "Weights": [
        -0.1176373622876149
      ],
      "Bias": -0.1285722353059876
    },
    {
      "Weights": [
        0.26399875053395694
      ],
      "Bias": 0.10745353091605825
    },
    {
      "Weights": [
        -0.7277620257307508
      ],
      "Bias": 0.46004828181147617
    },
    {
      "Weights": [
        -0.6161999645263966
      ],
      "Bias": 0.45842782540518656
    },
    {
      "Weights": [
        -0.950910205789384
      ],
      "Bias": -0.9193112869842287
    },
    {
      "Weights": [
        -0.2350244466015865
      ],
      "Bias": -0.7296901510193496
    },
    {
      "Weights": [
        0.5607146253444144
      ],
      "Bias": 0.06728779433545129
    },
    {
      "Weights": [
        0.182695981780314
      ],
      "Bias": -0.20785001377179857
    },
    {
      "Weights": [
        0.5550834519940677
      ],
      "Bias": 0.7048660878301514
    },
    {
      "Weights": [
        -0.0004848946554093514
      ],
      "Bias": 0.32103727775560187
    },
    {
      "Weights": [
        0.7041667654075372
      ],
      "Bias": 0.5235160796027252
    },
    {
      "Weights": [
        -0.35463542922130253
      ],
      "Bias": -0.6308906725388208
    },
    {
      "Weights": [
        -0.3092896413864621
      ],
      "Bias": 0.7004088426266841
    },
    {
      "Weights": [
        -0.8183504415207359
      ],
      "Bias": -0.23006227081287045
    },
    {
      "Weights": [
        0.07181440605050726
      ],
      "Bias": -0.8949170754063784
    },
    {
      "Weights": [
        0.2478786910668389
      ],
      "Bias": -0.2569226671690594
    },
    {
      "Weights": [
        -0.2966537296520583
      ],
      "Bias": -0.09904030000668296
    },
    {
      "Weights": [
        -0.3055501356557442
      ],
      "Bias": -0.8008027881754662
    },
    {
      "Weights": [
        0.3651680522562504
      ],
      "Bias": 0.9241762880620519
    },
    {
      "Weights": [
        -0.39920985260745734
      ],
      "Bias": 0.17685074237050524
    },
    {
      "Weights": [
        -0.21761440201421567
      ],
      "Bias": -0.20108766467819084
    },
    {
      "Weights": [
        -0.599154168419413
      ],
      "Bias": 0.6728613127267338
    },
    {
      "Weights": [
        -0.0892587202582864
      ],
      "Bias": 0.8612783070091172
    },
    {
      "Weights": [
        0.2658001151625431
      ],
      "Bias": 0.9852065949370417
    },
    {
      "Weights": [
        -0.5380270180003378
      ],
      "Bias": 0.9390286419687632
    },
    {
      "Weights": [
        0.21603452847124793
      ],
      "Bias": 0.35199529774013594
    },
    {
      "Weights": [
        0.40878440717225906
      ],
      "Bias": 0.3092579630447172
    },
    {
      "Weights": [
        0.2750841217285489
      ],
      "Bias": 0.498200230681378
    },
    {
      "Weights": [
        -0.759905667288598
      ],
      "Bias": 0.9027696561448522
    },
    {
      "Weights": [
        -0.6648019214778765
      ],
      "Bias": -0.20357284459347702
    },
    {
      "Weights": [
        -0.674474721925809
      ],
      "Bias": 0.8411984100135219
    },
    {
      "Weights": [
        -0.6823997512939195
      ],
      "Bias": 0.2429062189705833
    },
    {
      "Weights": [
        -0.2271483568845215
      ],
      "Bias": 0.46549545854397056
    },
    {
      "Weights": [
        0.851167906061834
      ],
      "Bias": -0.520539842154071
    },
    {
      "Weights": [
        0.5216793731293816
      ],
      "Bias": -0.799604217501406
    },
    {
      "Weights": [
        0.9029533427705858
      ],
      "Bias": -0.7429419740739943
    },
    {
      "Weights": [
        0.6027894505544031
      ],
      "Bias": -0.04879099535576725
    },
    {
      "Weights": [
        -0.47122946376160835
      ],
      "Bias": -0.23143546600326115
    },
    {
      "Weights": [
        0.1272329408485584
      ],
      "Bias": -0.8735736068681464
    },
    {
      "Weights": [
        0.7423541140809136
      ],
      "Bias": -0.17428577361567354
    },
    {
      "Weights": [
        -0.3262121391400815
      ],
      "Bias": -0.8213221607715375
    },
    {
      "Weights": [
        0.03330835421151135
      ],
      "Bias": 0.06454913268220808
    },
    {
      "Weights": [
        0.8882855193403605
      ],
      "Bias": -0.1623844907046157
    },
    {
      "Weights": [
        -0.3454230601771078
      ],
      "Bias": -0.30634332126820984
    },
    {
      "Weights": [
        0.4363461521526155
      ],
      "Bias": 0.4290092664537697
    },
    {
      "Weights": [
        -0.2975547373243853
      ],
      "Bias": 0.4567608106115755
    },
    {
      "Weights": [
        -0.3815011064014868
      ],
      "Bias": -0.23918528403129702
    },
    {
      "Weights": [
        0.12243902829077835
      ],
      "Bias": -0.4722527595151691
    },
    {
      "Weights": [
        0.3449296394960335
      ],
      "Bias": 0.09878387153208723
    },
    {
      "Weights": [
        0.8969330686864176
      ],
      "Bias": 0.26866889351629153
    },
    {
      "Weights": [
        -0.7343168606816375
      ],
      "Bias": 0.6749689033225481
    },
    {
      "Weights": [
        0.2509539699712937
      ],
      "Bias": -0.19723001394434458
    },
    {
      "Weights": [
        -0.6069232955284176
      ],
      "Bias": 0.12437609234520774
    },
    {
      "Weights": [
        -0.17485328963200064
      ],
      "Bias": -0.2332412710999321
    },
    {
      "Weights": [
        0.7738673759154535
      ],
      "Bias": 0.5078341925095562
    },
    {
      "Weights": [
        -0.5515428744772906
      ],
      "Bias": -0.1455265889104701
    },
    {
      "Weights": [
        0.7194625042557072
      ],
      "Bias": -0.8824381255697138
    },
    {
      "Weights": [
        -0.04539883943992584
      ],
      "Bias": -0.048792761001023255
    },
    {
      "Weights": [
        0.751045157751681
      ],
      "Bias": 0.6420549833133808
    },
    {
      "Weights": [
        -0.2105657398407519
      ],
      "Bias": 0.9168107954197131
    },
    {
      "Weights": [
        -0.1883924062627399
      ],
      "Bias": -0.11406162738348169
    },
    {
      "Weights": [
        0.2660282891846
      ],
      "Bias": 0.8551183253537458
    },
    {
      "Weights": [
        0.9182822353941194
      ],
      "Bias": 0.21807198832729546
    },
    {
      "Weights": [
        -0.25794163981427365
      ],
      "Bias": 0.7137826780161376
    },
    {
      "Weights": [
        -0.24973666947299
      ],
      "Bias": 0.7674378939142601
    },
    {
      "Weights": [
        0.399869185851909
      ],
      "Bias": 0.374252637667164
    },
    {
      "Weights": [
        -0.0953928344706797
      ],
      "Bias": 0.6477455458557735
    },
    {
      "Weights": [
        0.3717064075921199
      ],
      "Bias": -0.22881691954476624
    },
    {
      "Weights": [
        -0.8178391520100362
      ],
      "Bias": -0.6688786097100825
    },
    {
      "Weights": [
        -0.5999204377321448
      ],
      "Bias": -0.17717476964860168
    },
    {
      "Weights": [
        -0.6273027087183121
      ],
      "Bias": 0.37512359335429224
    },
    {
      "Weights": [
        0.24133753522005885
      ],
      "Bias": -0.12249551268116232
    },
    {
      "Weights": [
        -0.5297631923488999
      ],
      "Bias": 0.003152125921194404
    },
    {
      "Weights": [
        -0.9719332225150552
      ],
      "Bias": 0.5466313353503416
    },
    {
      "Weights": [
        0.4484876479918718
      ],
      "Bias": -0.04697518157554703
    },
    {
      "Weights": [
        0.9284735328426719
      ],
      "Bias": -0.03392604875534533
    },
    {
      "Weights": [
        -0.7285774447184601
      ],
      "Bias": -0.6053477622038093
    },
    {
      "Weights": [
        0.44967450000186426
      ],
      "Bias": 0.6925102789230793
    },
    {
      "Weights": [
        -0.18665155805220623
      ],
      "Bias": 0.7409323728115316
    },
    {
      "Weights": [
        -0.5252510725217614
      ],
      "Bias": 0.6727774126603527
    },
    {
      "Weights": [
        -0.599600022803876
      ],
      "Bias": 0.16561270316600263
    },
    {
      "Weights": [
        -0.18725658447443172
      ],
      "Bias": -0.44531310289473536
    },
    {
      "Weights": [
        0.9088026115969543
      ],
      "Bias": -0.24489365123977425
    },
    {
      "Weights": [
        0.7955008165897193
      ],
      "Bias": -0.9866773047714931
    },
    {
      "Weights": [
        0.0019380787525387078
      ],
      "Bias": 0.012856986911250479
    },
    {
      "Weights": [
        -0.6705714856190026
      ],
      "Bias": 0.7082142696323344
    },
    {
      "Weights": [
        -0.1819324445071322
      ],
      "Bias": 0.9482059593931087
    },
    {
      "Weights": [
        0.948530761575054
      ],
      "Bias": -0.45898533146448195
    },
    {
      "Weights": [
        0.6219390172158021
      ],
      "Bias": 0.5170159557816254
    },
    {
      "Weights": [
        0.027349746233910288
      ],
      "Bias": 0.43917808232932853
    },
    {
      "Weights": [
        0.390558048121985
      ],
      "Bias": -0.38059610298328184
    },
    {
      "Weights": [
        -0.3458664601233672
      ],
      "Bias": -0.026241104069875343
    },
    {
      "Weights": [
        0.888255659574287
      ],
      "Bias": 0.2639726029943896
    },
    {
      "Weights": [
        0.6802990470414896
      ],
      "Bias": 0.07285608441114744
    },
    {
      "Weights": [
        0.6981054189014562
      ],
      "Bias": -0.3448384228990953
    },
    {
      "Weights": [
        0.034060102396051395
      ],
      "Bias": 0.6768239021217843
    },
    {
      "Weights": [
        0.3041257593660951
      ],
      "Bias": -0.5847052765269858
    },
    {
      "Weights": [
        0.1844289460867612
      ],
      "Bias": -0.2526689039461604
    },
    {
      "Weights": [
        0.8906893688670383
      ],
      "Bias": 0.16830660664423802
    },
    {
      "Weights": [
        0.620534161131461
      ],
      "Bias": 0.5443298073618528
    },
    {
      "Weights": [
        0.733207290893132
      ],
      "Bias": -0.8003589393514983
    },
    {
      "Weights": [
        -0.1688615715945122
      ],
      "Bias": 0.9196686770193185
    },
    {
      "Weights": [
        0.48994109978317635
      ],
      "Bias": 0.33407499443166566
    },
    {
      "Weights": [
        -0.6694363692807632
      ],
      "Bias": -0.6014389115568208
    },
    {
      "Weights": [
        0.8253536175662743
      ],
      "Bias": -0.027074641326912063
    },
    {
      "Weights": [
        0.22708756903450222
      ],
      "Bias": 0.45295292955939725
    },
    {
      "Weights": [
        -0.9454899625857277
      ],
      "Bias": -0.40541313851167327
    },
    {
      "Weights": [
        -0.2646762594847314
      ],
      "Bias": 0.5302524095401115
    },
    {
      "Weights": [
        -0.7866434325722013
      ],
      "Bias": 0.05671443400611409
    },
    {
      "Weights": [
        -0.49734005766647604
      ],
      "Bias": -0.10045505272652622
    },
    {
      "Weights": [
        0.383425700436022
      ],
      "Bias": -0.9486215314670864
    },
    {
      "Weights": [
        -0.6390697656856652
      ],
      "Bias": 0.39630842703852753
    },
    {
      "Weights": [
        -0.9875528793736017
      ],
      "Bias": -0.7287661948531057
    },
    {
      "Weights": [
        0.17820558991170476
      ],
      "Bias": 0.12283913070451047
    },
    {
      "Weights": [
        -0.07258175419809654
      ],
      "Bias": -0.9997294549555088
    },
    {
      "Weights": [
        0.15070554450447715
      ],
      "Bias": 0.2870059366131361
    },
    {
      "Weights": [
        0.00837747950476575
      ],
      "Bias": -0.1518379688271273
    },
    {
      "Weights": [
        0.8483275501043834
      ],
      "Bias": -0.09575086937038002
    },
    {
      "Weights": [
        -0.5200161469464368
      ],
      "Bias": -0.6489212819041477
    },
    {
      "Weights": [
        0.13104180164937862
      ],
      "Bias": 0.10404481927854792
    },
    {
      "Weights": [
        0.8316328135716322
      ],
      "Bias": -0.42207330237192964
    },
    {
      "Weights": [
        -0.31608987062831584
      ],
      "Bias": 0.9856250127849608
    },
    {
      "Weights": [
        -0.7973887017830958
      ],
      "Bias": -0.2560557203827418
    },
    {
      "Weights": [
        0.49406370465716787
      ],
      "Bias": -0.5549709705801089
    },
    {
      "Weights": [
        -0.5258973042026793
      ],
      "Bias": -0.505074541600625
    },
    {
      "Weights": [
        0.28271349855967043
      ],
      "Bias": -0.5696949989540672
    },
    {
      "Weights": [
        0.11146543677532184
      ],
      "Bias": 0.39770561376473657
    },
    {
      "Weights": [
        -0.5263116993007962
      ],
      "Bias": -0.3854263707497807
    },
    {
      "Weights": [
        -0.5331181846108575
      ],
      "Bias": 0.5595902950459017
    },
    {
      "Weights": [
        0.6700212760816273
      ],
      "Bias": 0.06841735934318627
    },
    {
      "Weights": [
        0.3791683679675457
      ],
      "Bias": -0.6840817086711641
    },
    {
      "Weights": [
        0.36726683909408187
      ],
      "Bias": -0.1744874629037273
    },
    {
      "Weights": [
        0.9341847898291622
      ],
      "Bias": -0.4847553656712723
    },
    {
      "Weights": [
        -0.5172054527670278
      ],
      "Bias": -0.8250051765451029
    },
    {
      "Weights": [
        -0.21039396209980743
      ],
      "Bias": 0.1614903400861043
    },
    {
      "Weights": [
        -0.4707325013062079
      ],
      "Bias": 0.1781118988206445
    },
    {
      "Weights": [
        -0.034756344033042175
      ],
      "Bias": 0.44551167519901425
    },
    {
      "Weights": [
        0.15140540612769726
      ],
      "Bias": -0.3848343256985255
    },
    {
      "Weights": [
        -0.15757212101037588
      ],
      "Bias": 0.2994009971946414
    },
    {
      "Weights": [
        0.2538718065800183
      ],
      "Bias": 0.016295059182505067
    },
    {
      "Weights": [
        0.46223097668786783
      ],
      "Bias": 0.5709667948808221
    },
    {
      "Weights": [
        -0.41524821899751985
      ],
      "Bias": -0.2896054259012856
    },
    {
      "Weights": [
        -0.4951007348585491
      ],
      "Bias": 0.45978848969042674
    },
    {
      "Weights": [
        0.5699542266270148
      ],
      "Bias": -0.9045889347569617
    },
    {
      "Weights": [
        -0.8817160054592231
      ],
      "Bias": 0.702905367505601
    },
    {
      "Weights": [
        -0.09268552044226219
      ],
      "Bias": 0.5940217518715329
    },
    {
      "Weights": [
        0.14363543591166006
      ],
      "Bias": -0.26702768947319033
    },
    {
      "Weights": [
        -0.16640444626300444
      ],
      "Bias": 0.9258873164824959
    },
    {
      "Weights": [
        0.7420679337659652
      ],
      "Bias": -0.36069158272652424
    },
    {
      "Weights": [
        0.0003546302138544011
      ],
      "Bias": 0.1805066054978226
    },
    {
      "Weights": [
        0.9781543180186167
      ],
      "Bias": -0.9478979456630754
    },
    {
      "Weights": [
        0.5169100540784166
      ],
      "Bias": -0.6226828806907921
    },
    {
      "Weights": [
        0.8849441367564483
      ],
